{
  "summary": {
    "source_system": "draftkings",
    "season_start": 2024,
    "season_end": 2025,
    "slates_total": 41,
    "slates_evaluated": 33,
    "slates_warmup": 8,
    "training_window_slates": 24,
    "min_training_slates": 8,
    "model_top1_accuracy": 0.36363636363636365,
    "model_top2_accuracy": 0.6060606060606061,
    "baseline_top1_accuracy": 0.24242424242424243,
    "top1_accuracy_lift": 0.12121212121212122,
    "classes": [
      "DST",
      "QB",
      "RB",
      "TE",
      "WR"
    ],
    "features": [
      "game_total_line",
      "game_spread_abs",
      "max_team_implied_total",
      "min_team_implied_total",
      "implied_total_diff",
      "has_vegas_line",
      "pool_size",
      "team_count",
      "team1_player_count",
      "team2_player_count",
      "qb_count",
      "rb_count",
      "wr_count",
      "te_count",
      "k_count",
      "dst_count",
      "top_qb_proj_mean",
      "top_rb_proj_mean",
      "top_wr_proj_mean",
      "top_te_proj_mean",
      "top_k_proj_mean",
      "top_dst_proj_mean",
      "top_qb_salary",
      "top_rb_salary",
      "top_wr_salary",
      "top_te_salary",
      "top_k_salary",
      "top_dst_salary"
    ]
  },
  "model": {
    "classes": [
      "DST",
      "QB",
      "RB",
      "TE",
      "WR"
    ],
    "feature_names": [
      "game_total_line",
      "game_spread_abs",
      "max_team_implied_total",
      "min_team_implied_total",
      "implied_total_diff",
      "has_vegas_line",
      "pool_size",
      "team_count",
      "team1_player_count",
      "team2_player_count",
      "qb_count",
      "rb_count",
      "wr_count",
      "te_count",
      "k_count",
      "dst_count",
      "top_qb_proj_mean",
      "top_rb_proj_mean",
      "top_wr_proj_mean",
      "top_te_proj_mean",
      "top_k_proj_mean",
      "top_dst_proj_mean",
      "top_qb_salary",
      "top_rb_salary",
      "top_wr_salary",
      "top_te_salary",
      "top_k_salary",
      "top_dst_salary"
    ],
    "x_mean": [
      46.6219512195122,
      5.2073170731707314,
      25.914634146341463,
      20.70731707317073,
      5.2073170731707314,
      1.0,
      53.68292682926829,
      2.0,
      28.121951219512194,
      25.5609756097561,
      6.829268292682927,
      11.878048780487806,
      19.51219512195122,
      10.902439024390244,
      2.5609756097560976,
      2.0,
      20.357697728406137,
      17.1753931317129,
      17.339271123479037,
      11.884691107464368,
      8.979124411470744,
      7.37339579144027,
      10521.951219512195,
      10453.658536585366,
      10429.268292682927,
      6980.487804878048,
      5200.0,
      4604.878048780488
    ],
    "x_std": [
      2.954493245733332,
      2.6709265994153797,
      1.9116218341719178,
      2.068125137024216,
      2.6709265994153797,
      1.0,
      3.157947962856491,
      1.0,
      1.876622835285009,
      1.72568516598134,
      0.8526125996560262,
      1.5647819446190672,
      1.8626227406865155,
      1.461787713538702,
      0.7001317119223085,
      1.0,
      2.0454405599008156,
      3.028947882401057,
      2.194853249102759,
      2.7818880727048794,
      0.9694504633968852,
      0.8020395860128866,
      826.2498869405337,
      1232.9021010282245,
      1007.8336831526741,
      1665.0231833433404,
      211.84439756691185,
      633.2075602803499
    ],
    "weights": [
      [
        -0.2221650375246401,
        0.24248199246376162,
        -0.6481702095708608,
        -0.07302192603620226,
        0.709211059257085
      ],
      [
        0.0035590300564631483,
        -0.2064836670414668,
        0.5100430788094913,
        0.19263748494642297,
        -0.48643918505435096
      ],
      [
        -0.1679291551641732,
        0.043252939468040215,
        -0.16954099408121784,
        0.07431141317863899,
        0.2052712720275439
      ],
      [
        -0.16719475975859147,
        0.32060628096725363,
        -0.8076520011159569,
        -0.15430821002498646,
        0.823496225879356
      ],
      [
        0.007386635975037349,
        -0.20773899641971513,
        0.519587530262824,
        0.17736097221517697,
        -0.4865345142637365
      ],
      [
        0.0071638151692075495,
        -0.0008914686191144447,
        -0.005845946247603104,
        -2.9825424685686693e-05,
        0.0023197998388794277
      ],
      [
        -0.009134528254561016,
        0.21199001758028016,
        0.139042736739269,
        -0.339432467185327,
        0.06951111641648255
      ],
      [
        -0.006236740304106874,
        0.0012279851265678348,
        0.010080731018747801,
        0.010852515842289988,
        -0.0069762155068377974
      ],
      [
        0.016125099783089698,
        0.2478867269286184,
        0.6911530200677903,
        -0.8317387657090691,
        -0.1403996641338511
      ],
      [
        -0.02985603657286496,
        0.11141951334145536,
        -0.5285408330687896,
        0.2350063249268849,
        0.21519738705604877
      ],
      [
        0.023443178626476505,
        -0.8468501002501639,
        0.273100223054571,
        0.5021006648469712,
        0.03351134827940023
      ],
      [
        0.24290983283249581,
        0.8343014640661424,
        -0.4544082244405283,
        -0.516737360345355,
        -0.11212177626911005
      ],
      [
        -0.17764359376570965,
        -0.10264820823186822,
        0.4349418385373312,
        -0.5612467298666008,
        0.43240216709910545
      ],
      [
        0.011758156520325618,
        0.26477266941458494,
        0.42372926115382403,
        0.16647982329171196,
        -0.8754030437460211
      ],
      [
        -0.19168108320351995,
        -0.11328054091024023,
        -0.9003463521901421,
        0.12871564037835892,
        1.087969404338138
      ],
      [
        0.003952745225861175,
        0.012531123113207707,
        -0.00989910613496999,
        -0.013920393070294513,
        -0.00853641747914766
      ],
      [
        -0.6291633077072118,
        1.5710378815697694,
        0.1026867635566974,
        0.16442396063849554,
        -1.2138476220690697
      ],
      [
        -0.180272167073715,
        0.03238738398778836,
        0.8148147994458368,
        -0.10164083493125443,
        -0.5680527839860082
      ],
      [
        -0.35609335852833396,
        0.017226301337796807,
        -0.0851923474427137,
        -0.7617464161898116,
        1.1944490112023811
      ],
      [
        -0.16321862574879448,
        0.2263367502014961,
        -0.8979596554146504,
        -0.03700567016660902,
        0.8732319563498688
      ],
      [
        -0.0742968496229752,
        1.0254416741612569,
        -0.5408734889631274,
        -0.967378068428018,
        0.566599273341941
      ],
      [
        -0.012882261295697325,
        0.25528198632415583,
        -0.13704879974251485,
        -0.8505869118527724,
        0.7456939176849912
      ],
      [
        -0.2643148002843558,
        -0.1565653057765853,
        0.19813847907572327,
        0.7409897474739742,
        -0.5237131219601152
      ],
      [
        -0.6230621449994356,
        -0.49880971130547225,
        0.6128271265762473,
        0.5259142984838051,
        0.01093773989391733
      ],
      [
        -0.17439949989304904,
        1.0495363385376095,
        -0.7857368650206257,
        0.9810830578963085,
        -1.0843666413877315
      ],
      [
        -0.29378352815177633,
        -0.9256018841693541,
        1.2176417374547863,
        -0.43093098222138243,
        0.4147688242669442
      ],
      [
        -0.30620426358442276,
        -0.13634342817758324,
        -1.1316150640592766,
        1.544082506361922,
        0.05326306130523937
      ],
      [
        -0.43395167084731306,
        -1.5394802320243803,
        0.2978231171297419,
        0.07880715867740615,
        1.612978081355245
      ]
    ],
    "bias": [
      -1.3960624405639628,
      0.1197900269844905,
      -0.48390220949985463,
      -0.5897484342808881,
      2.349923057360213
    ]
  }
}