{
  "summary": {
    "source_system": "draftkings",
    "season_start": 2024,
    "season_end": 2025,
    "slates_total": 41,
    "slates_evaluated": 33,
    "slates_warmup": 8,
    "training_window_slates": 24,
    "min_training_slates": 8,
    "feature_set": "baseline",
    "model_top1_accuracy": 0.3333333333333333,
    "model_top2_accuracy": 0.5757575757575758,
    "baseline_top1_accuracy": 0.24242424242424243,
    "top1_accuracy_lift": 0.09090909090909088,
    "classes": [
      "DST",
      "QB",
      "RB",
      "TE",
      "WR"
    ],
    "features": [
      "game_total_line",
      "game_spread_abs",
      "max_team_implied_total",
      "min_team_implied_total",
      "implied_total_diff",
      "has_vegas_line",
      "pool_size",
      "team_count",
      "team1_player_count",
      "team2_player_count",
      "qb_count",
      "rb_count",
      "wr_count",
      "te_count",
      "k_count",
      "dst_count",
      "top_qb_proj_mean",
      "top_rb_proj_mean",
      "top_wr_proj_mean",
      "top_te_proj_mean",
      "top_k_proj_mean",
      "top_dst_proj_mean",
      "top_qb_salary",
      "top_rb_salary",
      "top_wr_salary",
      "top_te_salary",
      "top_k_salary",
      "top_dst_salary"
    ]
  },
  "model": {
    "classes": [
      "DST",
      "QB",
      "RB",
      "TE",
      "WR"
    ],
    "feature_names": [
      "game_total_line",
      "game_spread_abs",
      "max_team_implied_total",
      "min_team_implied_total",
      "implied_total_diff",
      "has_vegas_line",
      "pool_size",
      "team_count",
      "team1_player_count",
      "team2_player_count",
      "qb_count",
      "rb_count",
      "wr_count",
      "te_count",
      "k_count",
      "dst_count",
      "top_qb_proj_mean",
      "top_rb_proj_mean",
      "top_wr_proj_mean",
      "top_te_proj_mean",
      "top_k_proj_mean",
      "top_dst_proj_mean",
      "top_qb_salary",
      "top_rb_salary",
      "top_wr_salary",
      "top_te_salary",
      "top_k_salary",
      "top_dst_salary"
    ],
    "x_mean": [
      46.6219512195122,
      5.2073170731707314,
      25.914634146341463,
      20.70731707317073,
      5.2073170731707314,
      1.0,
      53.68292682926829,
      2.0,
      28.121951219512194,
      25.5609756097561,
      6.829268292682927,
      11.878048780487806,
      19.51219512195122,
      10.902439024390244,
      2.5609756097560976,
      2.0,
      24.749337355305073,
      19.681526039936934,
      20.691805041681295,
      14.325482355876208,
      9.787090868295687,
      7.37339579144027,
      10521.951219512195,
      10453.658536585366,
      10429.268292682927,
      6980.487804878048,
      5200.0,
      4604.878048780488
    ],
    "x_std": [
      2.954493245733332,
      2.6709265994153797,
      1.9116218341719178,
      2.068125137024216,
      2.6709265994153797,
      1.0,
      3.157947962856491,
      1.0,
      1.876622835285009,
      1.72568516598134,
      0.8526125996560262,
      1.5647819446190672,
      1.8626227406865155,
      1.461787713538702,
      0.7001317119223085,
      1.0,
      6.618413056095896,
      6.255324821364669,
      4.417940186383748,
      3.921574057645818,
      1.4573168517248147,
      0.8020395860128866,
      826.2498869405337,
      1232.9021010282245,
      1007.8336831526741,
      1665.0231833433404,
      211.84439756691185,
      633.2075602803499
    ],
    "weights": [
      [
        -0.22693765666287571,
        0.13348983616624657,
        -0.6087008782174199,
        -0.15897235341516164,
        0.8694569307183543
      ],
      [
        -0.023169875922757134,
        -0.5585872615246985,
        0.3977490292644079,
        0.20309210880553485,
        -0.005767258905927554
      ],
      [
        -0.190290172242266,
        -0.28695343903904097,
        -0.21748909964051938,
        0.0151950073690264,
        0.6649031789816341
      ],
      [
        -0.15334398401993604,
        0.4701200254609623,
        -0.7069470124945397,
        -0.22245289940214452,
        0.6275714064027318
      ],
      [
        -0.019342270004182947,
        -0.5598425909029473,
        0.40729348071774185,
        0.18781559607428794,
        -0.0058625881153131975
      ],
      [
        0.0071638151692075495,
        -0.0008914686191144447,
        -0.005845946247603104,
        -2.9825424685686693e-05,
        0.0023197998388794277
      ],
      [
        0.03890203831621326,
        0.28962438145362424,
        0.023659632018279864,
        -0.3627167456998825,
        0.0825075692079092
      ],
      [
        -0.006236740304106874,
        0.0012279851265678348,
        0.010080731018747801,
        0.010852515842289988,
        -0.0069762155068377974
      ],
      [
        0.0215515917571716,
        0.3788515379990327,
        0.7462428533732409,
        -0.8679364682960687,
        -0.2956830978967984
      ],
      [
        0.05214820242763119,
        0.11106818979531194,
        -0.7995964629691378,
        0.2317605969387089,
        0.4078458294902196
      ],
      [
        0.17795305007283324,
        -1.4656392527179798,
        0.323338964317551,
        0.5815191630381601,
        0.36813338984669397
      ],
      [
        0.11221210699799496,
        1.4803292682461995,
        -0.9748188397648528,
        -0.4598892649857581,
        -0.16388933464994204
      ],
      [
        -0.005101601538851487,
        -0.06224412438459526,
        0.5391248721469327,
        -0.6063695112383005,
        0.1603958387870713
      ],
      [
        0.020009785729732773,
        0.08527440251740893,
        0.3904483952919905,
        0.06683202894905048,
        -0.5712277458537565
      ],
      [
        -0.34732238728600306,
        -0.18613703049209102,
        -0.5265352833364754,
        0.12801864987746375,
        0.9433531196497001
      ],
      [
        0.003952745225861175,
        0.012531123113207707,
        -0.00989910613496999,
        -0.013920393070294513,
        -0.00853641747914766
      ],
      [
        -0.3652508716150235,
        0.32301504788985735,
        0.37820222660854524,
        -0.25889061535741026,
        -0.0819381115372904
      ],
      [
        -0.07579878954295266,
        -0.7944973677425999,
        0.7152138875395279,
        -0.28571605770756237,
        0.43803472489623396
      ],
      [
        -0.07293298043326757,
        -0.264670884920155,
        -0.5565428407339028,
        0.3848487368923351,
        0.517941159574312
      ],
      [
        -0.4569008661148522,
        0.24791422965785725,
        -0.08490852184114979,
        -1.0087828510615013,
        1.30406276458096
      ],
      [
        -0.4369911454030573,
        1.5661616123886948,
        -0.29026034720034666,
        -0.7505145650164577,
        -0.0789030142797514
      ],
      [
        -0.006710673716523645,
        0.2648800430461071,
        -0.3178097246563622,
        -0.8182899056161435,
        0.8783881920610889
      ],
      [
        -0.4224923816123825,
        0.09383538874517097,
        0.1955283372223936,
        0.9210149374920096,
        -0.7933512833185518
      ],
      [
        -0.31346351481918144,
        -0.11035518445061934,
        0.7255738809913059,
        0.8955883882916499,
        -1.1695362613640916
      ],
      [
        -0.08548385348984108,
        0.6296414990611158,
        -0.7017508092573892,
        0.7708954505817293,
        -0.6271858967631031
      ],
      [
        -0.331890435258233,
        -0.7494824216289204,
        0.9793350917051573,
        -0.1678751525374743,
        0.25200708489868967
      ],
      [
        -0.15578641583391356,
        -0.7722809826867313,
        -1.1423693359144333,
        1.7609226529894577,
        0.3326968932914957
      ],
      [
        -0.3758104611451361,
        -1.1480655592753581,
        0.49271412691033123,
        -0.04075443761815198,
        1.0880927854190117
      ]
    ],
    "bias": [
      -1.5486109448246312,
      0.3411891573748463,
      -0.46509039690623194,
      -0.780178874275211,
      2.452691058631229
    ]
  }
}