{
  "summary": {
    "source_system": "draftkings",
    "season_start": 2024,
    "season_end": 2025,
    "slates_total": 41,
    "slates_evaluated": 33,
    "slates_warmup": 8,
    "training_window_slates": 24,
    "min_training_slates": 8,
    "feature_set": "continuity",
    "model_top1_accuracy": 0.2727272727272727,
    "model_top2_accuracy": 0.5151515151515151,
    "baseline_top1_accuracy": 0.24242424242424243,
    "top1_accuracy_lift": 0.030303030303030276,
    "classes": [
      "DST",
      "QB",
      "RB",
      "TE",
      "WR"
    ],
    "features": [
      "game_total_line",
      "game_spread_abs",
      "max_team_implied_total",
      "min_team_implied_total",
      "implied_total_diff",
      "has_vegas_line",
      "pool_size",
      "team_count",
      "team1_player_count",
      "team2_player_count",
      "qb_count",
      "rb_count",
      "wr_count",
      "te_count",
      "k_count",
      "dst_count",
      "top_qb_proj_mean",
      "top_rb_proj_mean",
      "top_wr_proj_mean",
      "top_te_proj_mean",
      "top_k_proj_mean",
      "top_dst_proj_mean",
      "top_qb_salary",
      "top_rb_salary",
      "top_wr_salary",
      "top_te_salary",
      "top_k_salary",
      "top_dst_salary",
      "max_team_missing_usage_share",
      "team_missing_usage_share_diff",
      "max_team_available_usage_concentration",
      "team_available_usage_concentration_diff",
      "min_team_usage_identity_coverage"
    ]
  },
  "model": {
    "classes": [
      "DST",
      "QB",
      "RB",
      "TE",
      "WR"
    ],
    "feature_names": [
      "game_total_line",
      "game_spread_abs",
      "max_team_implied_total",
      "min_team_implied_total",
      "implied_total_diff",
      "has_vegas_line",
      "pool_size",
      "team_count",
      "team1_player_count",
      "team2_player_count",
      "qb_count",
      "rb_count",
      "wr_count",
      "te_count",
      "k_count",
      "dst_count",
      "top_qb_proj_mean",
      "top_rb_proj_mean",
      "top_wr_proj_mean",
      "top_te_proj_mean",
      "top_k_proj_mean",
      "top_dst_proj_mean",
      "top_qb_salary",
      "top_rb_salary",
      "top_wr_salary",
      "top_te_salary",
      "top_k_salary",
      "top_dst_salary",
      "max_team_missing_usage_share",
      "team_missing_usage_share_diff",
      "max_team_available_usage_concentration",
      "team_available_usage_concentration_diff",
      "min_team_usage_identity_coverage"
    ],
    "x_mean": [
      46.6219512195122,
      5.2073170731707314,
      25.914634146341463,
      20.70731707317073,
      5.2073170731707314,
      1.0,
      53.68292682926829,
      2.0,
      28.121951219512194,
      25.5609756097561,
      6.829268292682927,
      11.878048780487806,
      19.51219512195122,
      10.902439024390244,
      2.5609756097560976,
      2.0,
      24.75822966756408,
      19.67739404843465,
      20.696195129391302,
      14.328425596254561,
      9.787090868295687,
      7.37339579144027,
      10521.951219512195,
      10453.658536585366,
      10429.268292682927,
      6980.487804878048,
      5200.0,
      4604.878048780488,
      0.06327694696514294,
      0.051682027134746567,
      0.2151205489074289,
      0.07022442046783198,
      0.815520951260899
    ],
    "x_std": [
      2.954493245733332,
      2.6709265994153797,
      1.9116218341719178,
      2.068125137024216,
      2.6709265994153797,
      1.0,
      3.157947962856491,
      1.0,
      1.876622835285009,
      1.72568516598134,
      0.8526125996560262,
      1.5647819446190672,
      1.8626227406865155,
      1.461787713538702,
      0.7001317119223085,
      1.0,
      6.61664574115943,
      6.242844467391066,
      4.424205327205456,
      3.9208816632941943,
      1.4573168517248147,
      0.8020395860128866,
      826.2498869405337,
      1232.9021010282245,
      1007.8336831526741,
      1665.0231833433404,
      211.84439756691185,
      633.2075602803499,
      0.1833786421242323,
      0.15117923320687915,
      0.04370939144160369,
      0.07120886461316012,
      0.07858313407067441
    ],
    "weights": [
      [
        -0.21624197425087152,
        0.3035518775944263,
        -0.7604024461290403,
        -0.21539762276295366,
        0.8968260441375832
      ],
      [
        0.008627916356086415,
        -0.48401124954827557,
        0.30442244460145673,
        0.301469832237181,
        -0.1171922019298901
      ],
      [
        -0.15981084611145105,
        -0.10343539318943756,
        -0.39991788934751693,
        0.040318072875438475,
        0.6082115312017999
      ],
      [
        -0.1662371225444762,
        0.5434376630787187,
        -0.7550419746396735,
        -0.3262831144582324,
        0.7190720845107407
      ],
      [
        0.012455522274660586,
        -0.48526657892652275,
        0.31396689605478884,
        0.28619331950593446,
        -0.11728753113927624
      ],
      [
        0.0071638151692075495,
        -0.0008914686191144447,
        -0.005845946247603104,
        -2.9825424685686693e-05,
        0.0023197998388794277
      ],
      [
        0.02146533430404437,
        0.4152441259028213,
        -0.019223913803791043,
        -0.31871027027780374,
        -0.02679840082912687
      ],
      [
        -0.006236740304106874,
        0.0012279851265678348,
        0.010080731018747801,
        0.010852515842289988,
        -0.0069762155068377974
      ],
      [
        0.04913940325229942,
        0.5670043431991122,
        0.5816624472330613,
        -0.7241531547541791,
        -0.49062662199371654
      ],
      [
        -0.00976119046020894,
        0.13633859611053012,
        -0.6990964727894992,
        0.15593164928730335,
        0.41981377353460964
      ],
      [
        0.1281304828169151,
        -1.335402205501883,
        0.37918516097530847,
        0.5393575582693407,
        0.2740343179975737
      ],
      [
        0.14602890644016134,
        1.2616694094709306,
        -1.0641974243934251,
        -0.14291433020290248,
        -0.20664262547111695
      ],
      [
        -0.01708953524606173,
        0.10232458525851103,
        0.5591377325294546,
        -0.7590510210219317,
        0.14048371225228556
      ],
      [
        0.022050893082257026,
        0.22069070921477055,
        0.4461711039095509,
        -0.011236755817625258,
        -0.6863390837545288
      ],
      [
        -0.4132463262299718,
        -0.009977957457606493,
        -0.757795142787935,
        0.23861078744800263,
        0.953785707440107
      ],
      [
        0.003952745225861175,
        0.012531123113207707,
        -0.00989910613496999,
        -0.013920393070294513,
        -0.00853641747914766
      ],
      [
        -0.3208317891685663,
        0.28168995041547207,
        0.3919836539737209,
        -0.17375671598053846,
        -0.18394742325140864
      ],
      [
        -0.11472343781782633,
        -0.672237380580962,
        0.5587067327389832,
        -0.3200230908084469,
        0.5455135739108983
      ],
      [
        -0.08408454314588011,
        -0.14631065336683796,
        -0.598634005285279,
        0.21684373624860273,
        0.6208286559287154
      ],
      [
        -0.43316520908897205,
        0.07530041246811546,
        -0.030487749929109933,
        -0.8742596282422183,
        1.2639969300134957
      ],
      [
        -0.4773421741706843,
        1.3259793789495924,
        -0.025960961063298354,
        -0.507770580488695,
        -0.3054131227378377
      ],
      [
        0.012919998597505693,
        0.20210206271286857,
        -0.06912832936108959,
        -0.7770153980964168,
        0.6315795972652982
      ],
      [
        -0.4039764454053611,
        0.10050121689091955,
        0.058948411355605704,
        0.9560695768772854,
        -0.7170077611898049
      ],
      [
        -0.33083425206069134,
        -0.24649601076236005,
        0.7638713307568668,
        0.7079897463984464,
        -0.8667235056831966
      ],
      [
        -0.10627058140768433,
        0.6511805864964537,
        -0.6371214619497358,
        0.3937791345049671,
        -0.31545128751148827
      ],
      [
        -0.2843241289120628,
        -0.6361104582624443,
        0.6789701020293576,
        -0.07848577255346709,
        0.3020444248778363
      ],
      [
        -0.16141777245847388,
        -0.6726723581024999,
        -1.0203773279950534,
        1.5043961010750146,
        0.37325416932688943
      ],
      [
        -0.33534683998917386,
        -0.8544300899319597,
        0.035996588033166986,
        0.02854881863298521,
        1.1414079775456734
      ],
      [
        0.020683849074452632,
        0.4931679546458439,
        0.011591430120677893,
        -0.186569683779653,
        -0.30894246348951804
      ],
      [
        0.02802741477963464,
        0.42581390791659585,
        -0.01853729314033986,
        -0.23494352606532695,
        -0.1904858798048452
      ],
      [
        0.2997938150164593,
        0.6659992028409124,
        0.12223686277763172,
        -0.41494635614940617,
        -0.6549673068551508
      ],
      [
        0.1163115865378542,
        -0.7121798481856534,
        0.48593304736152193,
        0.5883285457613855,
        -0.5363848740586666
      ],
      [
        0.04131440503197659,
        0.88281868102464,
        -0.9688727059547229,
        0.8291695200171516,
        -0.7575467099006746
      ]
    ],
    "bias": [
      -1.3703184838752527,
      0.14947076216064697,
      -0.37428399856974803,
      -0.7355350871607153,
      2.3306668074450627
    ]
  }
}